Value,Row,Column
6.88607734328619e-39,0.0,0.0
-1.0346187333470921e-38,0.0,1.0
1.3091904156155147e-38,0.0,2.0
-1.4379679227989617e-38,0.0,3.0
-1.2243806095681088e-38,0.0,4.0
-1.1568804829311217e-38,0.0,5.0
-1.249653027372207e-38,0.0,6.0
-1.3162748201317552e-38,0.0,7.0
-1.1804356094671897e-38,0.0,8.0
-1.1216392278518168e-38,0.0,9.0
-1.1064284132812638e-38,0.0,10.0
-1.0580782913278932e-38,0.0,11.0
-6.888793059710051e-39,0.0,12.0
1.3270077854595583e-38,0.0,13.0
-1.202201277864315e-38,0.0,14.0
-1.4085965668568672e-38,0.0,15.0
-1.2298039148847387e-38,0.0,16.0
-8.819373164398066e-39,0.0,17.0
1.2565060775119874e-38,0.0,18.0
1.174824109766801e-38,0.0,19.0
-9.967646171512073e-39,0.0,20.0
1.2426267767422358e-38,0.0,21.0
-1.1660711791690888e-38,0.0,22.0
1.055086939496099e-38,0.0,23.0
-1.2534452212763627e-38,0.0,24.0
-1.1816638475711704e-38,0.0,25.0
-1.1828772319114292e-38,0.0,26.0
1.4793352343747554e-38,0.0,27.0
-1.2319422963412984e-38,0.0,28.0
-1.040784026200582e-38,0.0,29.0
-1.0868119163388736e-38,0.0,30.0
-1.0704448904054061e-38,0.0,31.0
-1.9737632188138808e-38,1.0,0.0
-9.757919435550434e-39,1.0,1.0
1.2261451245943866e-38,1.0,2.0
-1.3578039816801784e-38,1.0,3.0
-1.2037152407251714e-38,1.0,4.0
-1.2568468732985112e-38,1.0,5.0
-1.2622350060236865e-38,1.0,6.0
-1.3761684184446944e-38,1.0,7.0
-1.0854516759195535e-38,1.0,8.0
-1.1250052868929715e-38,1.0,9.0
-1.3740995413919652e-38,1.0,10.0
-9.16097189494192e-39,1.0,11.0
-4.100912567532756e-39,1.0,12.0
-3.040448285309657e-38,1.0,13.0
-1.1494779836634794e-38,1.0,14.0
1.2421763994158018e-38,1.0,15.0
-1.293069597822229e-38,1.0,16.0
-1.0802010105737284e-38,1.0,17.0
-1.1990419103466482e-38,1.0,18.0
-1.2928141411121827e-38,1.0,19.0
-1.1005065259710271e-38,1.0,20.0
-1.2344601494219972e-38,1.0,21.0
-1.1826074819570467e-38,1.0,22.0
-1.27503208398944e-38,1.0,23.0
-1.2886861960959747e-38,1.0,24.0
-1.2531637004148798e-38,1.0,25.0
1.1064003873119773e-38,1.0,26.0
-7.564901351866739e-39,1.0,27.0
1.3130051704249461e-38,1.0,28.0
-1.0228652023477213e-38,1.0,29.0
-1.0173736537958788e-38,1.0,30.0
-1.0159858077968115e-38,1.0,31.0
2.539525843007772e-38,2.0,0.0
-1.2428979279950827e-38,2.0,1.0
1.1414217786622296e-38,2.0,2.0
-1.433165813091567e-38,2.0,3.0
-1.431448521823537e-38,2.0,4.0
-1.3610428028207723e-38,2.0,5.0
-1.3013385199303634e-38,2.0,6.0
-1.4809715305915475e-38,2.0,7.0
-1.369674100711781e-38,2.0,8.0
-1.388387460793914e-38,2.0,9.0
-1.398829096170984e-38,2.0,10.0
-1.133533168957313e-38,2.0,11.0
-1.0025337629288325e-38,2.0,12.0
1.2130033272064092e-38,2.0,13.0
-1.322162375629616e-38,2.0,14.0
9.731268140057441e-39,2.0,15.0
-1.4200073402518641e-38,2.0,16.0
-1.2201528921012408e-38,2.0,17.0
1.276515358413928e-38,2.0,18.0
-1.806954751568351e-38,2.0,19.0
-1.2257526208945292e-38,2.0,20.0
-1.3295428745113683e-38,2.0,21.0
-1.342234995222144e-38,2.0,22.0
-1.2896144161987434e-38,2.0,23.0
-1.416417213586264e-38,2.0,24.0
-1.2813184490302476e-38,2.0,25.0
1.1560891696883174e-38,2.0,26.0
3.0396237612932483e-38,2.0,27.0
1.0826765444408046e-38,2.0,28.0
-1.1709189712064205e-38,2.0,29.0
-1.1712597669929443e-38,2.0,30.0
-1.3673793343466027e-38,2.0,31.0
-8.026710471172697e-39,3.0,0.0
-1.2380036128487354e-38,3.0,1.0
-1.3541194074980827e-38,3.0,2.0
-1.4156167919034416e-38,3.0,3.0
-1.216612791790817e-38,3.0,4.0
-1.1915748112198005e-38,3.0,5.0
-1.3544970574342182e-38,3.0,6.0
-1.440969363979699e-38,3.0,7.0
-1.1220873631007079e-38,3.0,8.0
-1.2306170883835864e-38,3.0,9.0
-1.342356487799001e-38,3.0,10.0
-1.1596624807723457e-38,3.0,11.0
-2.3437389439095441e-38,3.0,12.0
-1.1270139081117347e-38,3.0,13.0
-1.182247628511408e-38,3.0,14.0
3.0627931103620877e-38,3.0,15.0
-1.2648977533655966e-38,3.0,16.0
-1.1064924526210835e-38,3.0,17.0
1.4459585470320812e-38,3.0,18.0
-1.148460781108226e-38,3.0,19.0
-1.1854707551092016e-38,3.0,20.0
-1.3329652657507888e-38,3.0,21.0
-1.220146165868612e-38,3.0,22.0
1.1813226313951073e-38,3.0,23.0
-1.2406075056551438e-38,3.0,24.0
-1.2558330338595722e-38,3.0,25.0
1.064467791935675e-38,3.0,26.0
-1.928815169272198e-38,3.0,27.0
1.3537872997620377e-38,3.0,28.0
-1.0578127452689036e-38,3.0,29.0
-1.1736852745048442e-38,3.0,30.0
-1.269494712977814e-38,3.0,31.0
-2.4258068292518056e-38,4.0,0.0
-1.1702928710525602e-38,4.0,1.0
-1.2733216590838852e-38,4.0,2.0
-1.3062217648188426e-38,4.0,3.0
-1.3892973238868e-38,4.0,4.0
-1.3590068562819548e-38,4.0,5.0
-1.3086858080385113e-38,4.0,6.0
-1.3408353783159763e-38,4.0,7.0
-1.2045236498092404e-38,4.0,8.0
-1.277020526510317e-38,4.0,9.0
-1.2644000121510684e-38,4.0,10.0
-1.294379251366987e-38,4.0,11.0
-3.1076189666776814e-39,4.0,12.0
1.255174563711186e-38,4.0,13.0
-1.167064980039988e-38,4.0,14.0
-1.178070778178795e-38,4.0,15.0
-1.318522082478993e-38,4.0,16.0
-1.2168358785063376e-38,4.0,17.0
1.258962974109488e-38,4.0,18.0
1.2412813900866376e-38,4.0,19.0
-1.3375182245912266e-38,4.0,20.0
1.1383539159342833e-38,4.0,21.0
-1.3850645617454605e-38,4.0,22.0
-1.3026711547699363e-38,4.0,23.0
-1.3579837682731512e-38,4.0,24.0
-1.193879666933922e-38,4.0,25.0
1.2698285022720163e-38,4.0,26.0
7.791677686243817e-39,4.0,27.0
-1.2626036876496504e-38,4.0,28.0
-1.288309807328457e-38,4.0,29.0
-1.1497955178954954e-38,4.0,30.0
-1.3460772154814761e-38,4.0,31.0
-2.58732889804067e-38,5.0,0.0
-1.3992506067490528e-38,5.0,1.0
-1.4386317178815124e-38,5.0,2.0
-1.4731550877575436e-38,5.0,3.0
-1.4612996823598164e-38,5.0,4.0
-1.4501185817831222e-38,5.0,5.0
-1.494675809183105e-38,5.0,6.0
-1.404041506068733e-38,5.0,7.0
-1.402901689897851e-38,5.0,8.0
-1.3390590923825982e-38,5.0,9.0
-1.4303489229185813e-38,5.0,10.0
-1.2892870728774771e-38,5.0,11.0
-2.545612803277106e-39,5.0,12.0
-1.3705749954944955e-38,5.0,13.0
-1.3590516978328132e-38,5.0,14.0
1.1807764052537135e-38,5.0,15.0
-1.4564489475957096e-38,5.0,16.0
-1.419006392758797e-38,5.0,17.0
-1.352751880326748e-38,5.0,18.0
1.1364495513212658e-38,5.0,19.0
-1.312712579305595e-38,5.0,20.0
-1.7243291494372883e-38,5.0,21.0
-1.3780684390324724e-38,5.0,22.0
-1.2796817324239163e-38,5.0,23.0
-1.4930739849085352e-38,5.0,24.0
-1.4361072786980313e-38,5.0,25.0
-1.2963115018194446e-38,5.0,26.0
1.4059178447124638e-38,5.0,27.0
1.2541101373976848e-38,5.0,28.0
-1.3291924097654407e-38,5.0,29.0
-1.3419140978738135e-38,5.0,30.0
-1.4463161584001768e-38,5.0,31.0
-6.212977638932407e-39,6.0,0.0
-1.1820556506217956e-38,6.0,1.0
1.8794939474830502e-38,6.0,2.0
-1.5142235023708968e-38,6.0,3.0
-1.3769881780463244e-38,6.0,4.0
-1.2906052743428675e-38,6.0,5.0
-1.2540371297476935e-38,6.0,6.0
-1.3924362324468876e-38,6.0,7.0
-1.3132965003756793e-38,6.0,8.0
-1.257730111720575e-38,6.0,9.0
-1.1983912874696622e-38,6.0,10.0
-1.068943679360575e-38,6.0,11.0
-1.0341369669350573e-38,6.0,12.0
1.224174618693853e-38,6.0,13.0
-1.1483723591751271e-38,6.0,14.0
-1.3067953162802907e-38,6.0,15.0
-1.2557776825702314e-38,6.0,16.0
-1.2119620223175694e-38,6.0,17.0
-1.1520898638711344e-38,6.0,18.0
1.2538336612106735e-38,6.0,19.0
-1.2272515898618175e-38,6.0,20.0
-1.6522385091610195e-38,6.0,21.0
-1.4105925763894514e-38,6.0,22.0
-1.9815831648940454e-38,6.0,23.0
-1.3883941870265427e-38,6.0,24.0
-1.2474897028029822e-38,6.0,25.0
-1.2406379138318196e-38,6.0,26.0
3.0752234685197274e-38,6.0,27.0
1.1474147118046075e-38,6.0,28.0
-1.2052214964444742e-38,6.0,29.0
-1.1902538071574815e-38,6.0,30.0
-1.2320995220289956e-38,6.0,31.0
2.5514478100825545e-38,7.0,0.0
-1.3480307656705914e-38,7.0,1.0
1.337079618171893e-38,7.0,2.0
-1.3986032068585347e-38,7.0,3.0
-1.4700778363298863e-38,7.0,4.0
-1.3992215998708413e-38,7.0,5.0
-1.4290403904125948e-38,7.0,6.0
-1.4885874476153064e-38,7.0,7.0
-1.4226707882430063e-38,7.0,8.0
-1.4858142779544076e-38,7.0,9.0
-1.494742230730314e-38,7.0,10.0
-1.3191187553651024e-38,7.0,11.0
-1.7693368942935514e-39,7.0,12.0
-1.303169036114311e-38,7.0,13.0
-1.4469547301103697e-38,7.0,14.0
-1.3721937754804835e-38,7.0,15.0
-1.442766669390042e-38,7.0,16.0
-1.4001335649114239e-38,7.0,17.0
1.1117669400408021e-38,7.0,18.0
1.0080588025139724e-38,7.0,19.0
-1.4431364720547774e-38,7.0,20.0
-1.3898530788577513e-38,7.0,21.0
-1.4725516886388054e-38,7.0,22.0
1.1390858141222001e-38,7.0,23.0
-1.4722005232436456e-38,7.0,24.0
-1.4413732181971175e-38,7.0,25.0
-1.185767970513485e-38,7.0,26.0
-3.2980383321381593e-38,7.0,27.0
1.4897363722262063e-38,7.0,28.0
-1.352436868431968e-38,7.0,29.0
-1.427237619938241e-38,7.0,30.0
-1.3140603481685827e-38,7.0,31.0
1.3002314941435468e-38,8.0,0.0
-1.140491036222225e-38,8.0,1.0
1.1541657474161852e-38,8.0,2.0
-1.415040157585372e-38,8.0,3.0
-1.377875480233935e-38,8.0,4.0
-1.3720083836936533e-38,8.0,5.0
-1.2714901619910127e-38,8.0,6.0
-1.4462488960738893e-38,8.0,7.0
-1.1081864823346057e-38,8.0,8.0
-1.24223539408115e-38,8.0,9.0
-1.283712987846086e-38,8.0,10.0
-1.0636176241573692e-38,8.0,11.0
-2.6308728465210994e-38,8.0,12.0
1.1597535651725268e-38,8.0,13.0
-1.2441974921908975e-38,8.0,14.0
-1.323407289185322e-38,8.0,15.0
-1.2263258920962845e-38,8.0,16.0
-1.1173155214401426e-38,8.0,17.0
-1.309505427510295e-38,8.0,18.0
1.2135977580149758e-38,8.0,19.0
-1.201664440422632e-38,8.0,20.0
1.2097200849044961e-38,8.0,21.0
-1.393120626616864e-38,8.0,22.0
-1.1984228166851095e-38,8.0,23.0
-1.2396878334730074e-38,8.0,24.0
-1.2307664667998834e-38,8.0,25.0
1.1380935546796117e-38,8.0,26.0
2.2942418591631237e-38,8.0,27.0
-1.2803771968517607e-38,8.0,28.0
-1.0955932932954115e-38,8.0,29.0
-1.2847418211785932e-38,8.0,30.0
-1.1358523179157706e-38,8.0,31.0
3.3261141876499856e-38,9.0,0.0
-1.252185874346474e-38,9.0,1.0
1.2247043095133678e-38,9.0,2.0
-1.3140903359557193e-38,9.0,3.0
-1.400963413861997e-38,9.0,4.0
-1.403514057326761e-38,9.0,5.0
-1.4428182371735292e-38,9.0,6.0
-1.4333454595546935e-38,9.0,7.0
-1.2835355834605024e-38,9.0,8.0
-1.439066400665146e-38,9.0,9.0
-1.2942656060615304e-38,9.0,10.0
-1.3154048940451024e-38,9.0,11.0
-2.7272804993084896e-38,9.0,12.0
1.523932959300357e-38,9.0,13.0
-1.2903405690629565e-38,9.0,14.0
1.2821659543414713e-38,9.0,15.0
-1.3608540479176278e-38,9.0,16.0
-1.1328199080389717e-38,9.0,17.0
1.1275221590647453e-38,9.0,18.0
1.192870732039608e-38,9.0,19.0
-1.3150357920295992e-38,9.0,20.0
1.1592179888994619e-38,9.0,21.0
-1.2379070633845434e-38,9.0,22.0
-1.1301479121271971e-38,9.0,23.0
-1.3946968071295364e-38,9.0,24.0
-1.3018637265947924e-38,9.0,25.0
-1.1452548904815437e-38,9.0,26.0
-5.892488068455142e-40,9.0,27.0
1.1500760578480532e-38,9.0,28.0
-1.2065277868729178e-38,9.0,29.0
-1.230338650378725e-38,9.0,30.0
-1.249737946059145e-38,9.0,31.0
-1.0907455012580798e-38,10.0,0.0
1.1299242648922909e-38,10.0,1.0
1.465321829341968e-38,10.0,2.0
-1.271917277762939e-38,10.0,3.0
-1.109716560127802e-38,10.0,4.0
1.0127577766543928e-38,10.0,5.0
-1.1487892454682637e-38,10.0,6.0
1.299382307274166e-38,10.0,7.0
-1.2090958064386394e-38,10.0,8.0
1.193904329786894e-38,10.0,9.0
-1.209678606469952e-38,10.0,10.0
-1.15989131281157e-38,10.0,11.0
-1.1165121570305452e-38,10.0,12.0
2.786099441829138e-38,10.0,13.0
1.3065376174927014e-38,10.0,14.0
1.0962114060480251e-38,10.0,15.0
1.1029383393260164e-38,10.0,16.0
-1.0724616391552624e-38,10.0,17.0
1.1261401985192282e-38,10.0,18.0
1.0705522298677734e-38,10.0,19.0
1.1588118926045006e-38,10.0,20.0
-1.1936200063284826e-38,10.0,21.0
1.1308711222646352e-38,10.0,22.0
1.387531407562058e-38,10.0,23.0
-1.6265974097309575e-38,10.0,24.0
-1.1786317179540643e-38,10.0,25.0
-1.4929370780485706e-38,10.0,26.0
-1.1876546787658518e-38,10.0,27.0
1.3507211185922486e-38,10.0,28.0
1.2506570577218956e-38,10.0,29.0
-2.1211470268767864e-38,10.0,30.0
-9.851785413183232e-39,10.0,31.0
7.78240529430538e-39,11.0,0.0
-1.1688643873980275e-38,11.0,1.0
1.653544098940231e-38,11.0,2.0
-1.4932785744843266e-38,11.0,3.0
-1.2601528166355463e-38,11.0,4.0
-1.3650524782465914e-38,11.0,5.0
-1.4304157648553296e-38,11.0,6.0
-1.4008112328487713e-38,11.0,7.0
-1.3002404624537185e-38,11.0,8.0
-1.3749009439837126e-38,11.0,9.0
-1.2090817934539962e-38,11.0,10.0
-1.1603613083165045e-38,11.0,11.0
-1.399836489636987e-38,11.0,12.0
1.2057328302541063e-38,11.0,13.0
-1.1704308989512962e-38,11.0,14.0
-1.479608907964838e-38,11.0,15.0
-1.2586262420885108e-38,11.0,16.0
-1.2330571693995152e-38,11.0,17.0
-1.466386535915162e-38,11.0,18.0
1.165684701052628e-38,11.0,19.0
-1.283169003782235e-38,11.0,20.0
-1.5682818136186945e-38,11.0,21.0
-1.2892615692454264e-38,11.0,22.0
1.2794719580438068e-38,11.0,23.0
-1.3517275311493267e-38,11.0,24.0
-1.2941312215388016e-38,11.0,25.0
1.1598387641191578e-38,11.0,26.0
1.5568900978828124e-38,11.0,27.0
1.0968380667212712e-38,11.0,28.0
-1.1537773074818744e-38,11.0,29.0
-1.310340741524879e-38,11.0,30.0
-1.1852344961881164e-38,11.0,31.0
2.0911955333704613e-39,12.0,0.0
-1.255767172831749e-38,12.0,1.0
-1.3796482629211522e-38,12.0,2.0
-1.4876754825747238e-38,12.0,3.0
-1.3820275275837293e-38,12.0,4.0
-1.295392109897001e-38,12.0,5.0
-1.3803035100830705e-38,12.0,6.0
-1.301689264935984e-38,12.0,7.0
-1.3929367762583445e-38,12.0,8.0
-1.3266364413665122e-38,12.0,9.0
-1.3666670543371864e-38,12.0,10.0
-1.2821817890141182e-38,12.0,11.0
-3.36355155768258e-38,12.0,12.0
-1.3344150491419793e-38,12.0,13.0
-1.2606347231774276e-38,12.0,14.0
-1.6280219697497901e-38,12.0,15.0
-1.4340452680077773e-38,12.0,16.0
-1.3399398084674263e-38,12.0,17.0
1.177719472653789e-38,12.0,18.0
-1.2655025537827992e-38,12.0,19.0
-1.2279819466214236e-38,12.0,20.0
1.2678736909142832e-38,12.0,21.0
-1.3813822296409077e-38,12.0,22.0
3.420697069577132e-38,12.0,23.0
-1.3227457361803144e-38,12.0,24.0
-1.2910067463528966e-38,12.0,25.0
1.1302986918419585e-38,12.0,26.0
3.3225775905857226e-38,12.0,27.0
1.3115873366387423e-38,12.0,28.0
-1.2289192751642105e-38,12.0,29.0
-1.279238081330111e-38,12.0,30.0
-1.2716482284577885e-38,12.0,31.0
-2.2176208209516927e-38,13.0,0.0
-1.2286776913089609e-38,13.0,1.0
1.2704306402221367e-38,13.0,2.0
-1.3541855487855988e-38,13.0,3.0
-1.402650857472737e-38,13.0,4.0
-1.241595841462032e-38,13.0,5.0
-1.489711008724002e-38,13.0,6.0
-1.4442968873130848e-38,13.0,7.0
-1.3140998647852767e-38,13.0,8.0
-1.3058323439756067e-38,13.0,9.0
-1.441341969241363e-38,13.0,10.0
-1.121925372998232e-38,13.0,11.0
-3.7164397091744203e-39,13.0,12.0
1.2657825332159713e-38,13.0,13.0
-1.2198479695554038e-38,13.0,14.0
1.1213808284149953e-38,13.0,15.0
-1.281252447872578e-38,13.0,16.0
-1.1870619295154424e-38,13.0,17.0
1.1862800049723492e-38,13.0,18.0
1.2001821469070693e-38,13.0,19.0
-1.250545374234289e-38,13.0,20.0
-1.5121969445317902e-38,13.0,21.0
-1.3909285754291206e-38,13.0,22.0
-1.2940251432450522e-38,13.0,23.0
-1.392205018200274e-38,13.0,24.0
-1.3370344963613417e-38,13.0,25.0
1.1587572419643919e-38,13.0,26.0
-4.53806303776199e-40,13.0,27.0
1.3703079080071951e-38,13.0,28.0
-1.1165379409222888e-38,13.0,29.0
-1.34053199719845e-38,13.0,30.0
-1.133493652340619e-38,13.0,31.0
-1.1039282165612155e-38,14.0,0.0
1.4007718563619238e-38,14.0,1.0
1.1959482637269583e-38,14.0,2.0
1.1398484007464857e-38,14.0,3.0
1.19439940853434e-38,14.0,4.0
-1.0093449142445297e-38,14.0,5.0
1.155272492943309e-38,14.0,6.0
-1.2442343463405092e-38,14.0,7.0
1.2931504527436207e-38,14.0,8.0
-1.2361373635539476e-38,14.0,9.0
1.2314571668129491e-38,14.0,10.0
1.3429605875669713e-38,14.0,11.0
2.4886948622531605e-38,14.0,12.0
-1.2616244602827802e-38,14.0,13.0
-1.3295088229586852e-38,14.0,14.0
-1.3587980628107704e-38,14.0,15.0
1.2226579933659143e-38,14.0,16.0
-1.25237967392409e-38,14.0,17.0
1.350090394153456e-38,14.0,18.0
-1.572575812502925e-38,14.0,19.0
-1.2471490471463049e-38,14.0,20.0
-1.374716673235654e-38,14.0,21.0
-1.1289705411574714e-38,14.0,22.0
1.1630289602030397e-38,14.0,23.0
1.3154011105392487e-38,14.0,24.0
-1.2330365703120896e-38,14.0,25.0
-1.2076701253810354e-38,14.0,26.0
1.1509399583513095e-38,14.0,27.0
1.2101987684599095e-38,14.0,28.0
-1.553869879302653e-38,14.0,29.0
1.2427191223110348e-38,14.0,30.0
1.081449006986056e-38,14.0,31.0
1.2937569347189804e-38,15.0,0.0
-1.1370446827790646e-38,15.0,1.0
-1.1673385135002242e-38,15.0,2.0
1.4416733763281759e-38,15.0,3.0
1.0582597594790233e-38,15.0,4.0
1.213220388338533e-38,15.0,5.0
1.4800278962056711e-38,15.0,6.0
-1.2732831233761163e-38,15.0,7.0
-1.2516696359922167e-38,15.0,8.0
1.5105895150633632e-38,15.0,9.0
1.261176885553275e-38,15.0,10.0
-1.5714009638704352e-38,15.0,11.0
1.1795058479361102e-38,15.0,12.0
7.923712231447894e-39,15.0,13.0
1.282095889418255e-38,15.0,14.0
1.457971598507045e-38,15.0,15.0
1.1375819406102867e-38,15.0,16.0
1.2492750971763785e-38,15.0,17.0
1.2410885714179465e-38,15.0,18.0
-1.2643700243639318e-38,15.0,19.0
1.3039595085780366e-38,15.0,20.0
1.1593414432941689e-38,15.0,21.0
1.252045604370195e-38,15.0,22.0
1.1054284466971216e-38,15.0,23.0
1.2828458643563617e-38,15.0,24.0
-1.0688755762552088e-38,15.0,25.0
9.811463049872286e-39,15.0,26.0
-1.5704772279227522e-38,15.0,27.0
-1.3001900157090028e-38,15.0,28.0
1.4105564228890718e-38,15.0,29.0
1.2734361451684205e-38,15.0,30.0
-9.93061405699536e-39,15.0,31.0
-2.589723436856508e-38,16.0,0.0
-9.800887450362026e-39,16.0,1.0
1.266575668146779e-38,16.0,2.0
-1.4260120443013424e-38,16.0,3.0
-1.1574065303746292e-38,16.0,4.0
-1.2532561861135253e-38,16.0,5.0
-1.3739647364796972e-38,16.0,6.0
-1.249194242254987e-38,16.0,7.0
-1.0890387197285321e-38,16.0,8.0
-1.2567124887757824e-38,16.0,9.0
-1.2752715658969932e-38,16.0,10.0
-8.83534516429444e-39,16.0,11.0
-2.1906919282329163e-38,16.0,12.0
1.134181830016449e-38,16.0,13.0
-1.091312606746592e-38,16.0,14.0
-1.5632625026493295e-38,16.0,15.0
-1.22319314924944e-38,16.0,16.0
-1.0102336177306045e-38,16.0,17.0
-1.1405906685430385e-38,16.0,18.0
1.5341615973108496e-38,16.0,19.0
-1.1382052381672184e-38,16.0,20.0
-1.4857992840608393e-38,16.0,21.0
-1.2653098752439545e-38,16.0,22.0
1.1557223097503572e-38,16.0,23.0
-1.2228068112628256e-38,16.0,24.0
-1.2024927479448945e-38,16.0,25.0
1.1835693332229593e-38,16.0,26.0
4.3236867934957225e-39,16.0,27.0
1.7107623382250811e-38,16.0,28.0
-1.1576992616238267e-38,16.0,29.0
-1.0134805664022916e-38,16.0,30.0
-1.017561007400559e-38,16.0,31.0
-1.3505173697955358e-38,17.0,0.0
1.1805023112740915e-38,17.0,1.0
-1.2282367026822378e-38,17.0,2.0
-4.32616148658372e-39,17.0,3.0
1.3105013303288905e-38,17.0,4.0
-1.0395821325077306e-38,17.0,5.0
1.6936205343706885e-39,17.0,6.0
-1.7004543867215078e-38,17.0,7.0
2.8401601352843252e-39,17.0,8.0
1.0742307784664725e-38,17.0,9.0
1.0926165149676463e-38,17.0,10.0
1.4400309143981407e-38,17.0,11.0
3.0543177769901583e-39,17.0,12.0
1.3323812045508582e-38,17.0,13.0
2.1823197304279612e-38,17.0,14.0
1.2115981051063843e-38,17.0,15.0
5.1306287180725614e-39,17.0,16.0
-2.192023161774025e-40,17.0,17.0
-1.3309776640089905e-38,17.0,18.0
-1.1520727680298697e-38,17.0,19.0
1.3755327894612767e-38,17.0,20.0
1.770995751415619e-38,17.0,21.0
1.0498082481809874e-38,17.0,22.0
1.1541707920906568e-38,17.0,23.0
1.2306962617468208e-38,17.0,24.0
3.2456098711342177e-38,17.0,25.0
1.0274810794892072e-38,17.0,26.0
-9.871969716263367e-39,17.0,27.0
-1.320774669760395e-38,17.0,28.0
2.454110535893931e-38,17.0,29.0
2.721847945421995e-38,17.0,30.0
-4.1563157049167664e-39,17.0,31.0
-7.300896721187943e-39,18.0,0.0
-1.2826089047860444e-38,18.0,1.0
-2.343094767005494e-38,18.0,2.0
-1.2791275188812758e-38,18.0,3.0
-1.2313749105930933e-38,18.0,4.0
-1.3896584385010565e-38,18.0,5.0
-1.4058905193924095e-38,18.0,6.0
-1.3549411289175628e-38,18.0,7.0
-1.2825330945391244e-38,18.0,8.0
-1.3435665090229454e-38,18.0,9.0
-1.3731165305192414e-38,18.0,10.0
-1.241859285573325e-38,18.0,11.0
-2.4082014758654144e-38,18.0,12.0
1.507762395411588e-38,18.0,13.0
-1.325389565992956e-38,18.0,14.0
-1.455217206245568e-38,18.0,15.0
-1.2592617309420822e-38,18.0,16.0
-1.193891017451483e-38,18.0,17.0
1.233762162656917e-38,18.0,18.0
1.2219204899841402e-38,18.0,19.0
-1.2776407412106272e-38,18.0,20.0
1.1924049404300665e-38,18.0,21.0
-1.2675031876003157e-38,18.0,22.0
-1.3636277780979123e-38,18.0,23.0
-1.3287801477572363e-38,18.0,24.0
-1.2273537445198668e-38,18.0,25.0
1.192829533864757e-38,18.0,26.0
3.0415469033056877e-38,18.0,27.0
-1.191119389218895e-38,18.0,28.0
-1.1874149165986059e-38,18.0,29.0
-1.254260496722907e-38,18.0,30.0
-1.247957175970681e-38,18.0,31.0
-2.947350499495002e-38,19.0,0.0
-1.257938765061913e-38,19.0,1.0
-3.252699040065237e-38,19.0,2.0
-1.424659511023576e-38,19.0,3.0
-1.2980304746456318e-38,19.0,4.0
-1.344387109403654e-38,19.0,5.0
-1.3101013997471722e-38,19.0,6.0
-1.3804479839547424e-38,19.0,7.0
-1.378856669418655e-38,19.0,8.0
-1.3255537981729749e-38,19.0,9.0
-1.3878831334766034e-38,19.0,10.0
-1.2094943357218934e-38,19.0,11.0
-1.0453090992015797e-38,19.0,12.0
9.664438814995326e-39,19.0,13.0
-1.3957034999463074e-38,19.0,14.0
1.3680134219017097e-38,19.0,15.0
-1.2858276873585985e-38,19.0,16.0
-1.2552060929266333e-38,19.0,17.0
-1.398180154852155e-38,19.0,18.0
-1.9158502157504183e-38,19.0,19.0
-1.3164697407481428e-38,19.0,20.0
8.853375671634908e-39,19.0,21.0
-1.43222259909523e-38,19.0,22.0
1.1308806510941926e-38,19.0,23.0
-1.292538785963943e-38,19.0,24.0
-1.3793126519389464e-38,19.0,25.0
-1.6331631936855515e-38,19.0,26.0
-1.3979291822971945e-38,19.0,27.0
1.2230886123840013e-38,19.0,28.0
-1.1714935035767937e-38,19.0,29.0
-1.2703855184115854e-38,19.0,30.0
-1.316446479193635e-38,19.0,31.0
-1.7066060869798937e-38,20.0,0.0
-1.3600474605215624e-38,20.0,1.0
-3.0189167738859205e-38,20.0,2.0
-1.36589704083104e-38,20.0,3.0
-1.435751769277632e-38,20.0,4.0
-1.510950349417927e-38,20.0,5.0
-1.4941986670560023e-38,20.0,6.0
-1.4983376823300785e-38,20.0,7.0
-1.5043587815715894e-38,20.0,8.0
-1.431663060618425e-38,20.0,9.0
-1.472503624101479e-38,20.0,10.0
-1.3967684867791942e-38,20.0,11.0
1.0390947609018385e-38,20.0,12.0
-1.2484034895315684e-38,20.0,13.0
-1.3642764391570483e-38,20.0,14.0
-1.3268647128863507e-38,20.0,15.0
-1.3173458325480387e-38,20.0,16.0
-1.3790580360079786e-38,20.0,17.0
1.111448424899861e-38,20.0,18.0
1.1335316275290023e-38,20.0,19.0
-1.43150849739781e-38,20.0,20.0
1.1679493395008234e-38,20.0,21.0
-1.3915360383134054e-38,20.0,22.0
3.1284313317295264e-38,20.0,23.0
-1.4327803158840313e-38,20.0,24.0
-1.3995318473508428e-38,20.0,25.0
1.661822970267462e-38,20.0,26.0
-1.0311621504251421e-38,20.0,27.0
-1.3548239803659452e-38,20.0,28.0
-1.3870050798588575e-38,20.0,29.0
-1.4737537224615032e-38,20.0,30.0
-1.4846764236013758e-38,20.0,31.0
-2.385468210878673e-39,21.0,0.0
-1.3702185051651712e-38,21.0,1.0
-1.557354908583429e-38,21.0,2.0
-1.3137317436786985e-38,21.0,3.0
-1.3806699496314914e-38,21.0,4.0
-1.27620889443978e-38,21.0,5.0
-1.3735783984930828e-38,21.0,6.0
-1.3458248416280512e-38,21.0,7.0
-1.2058326027047662e-38,21.0,8.0
-1.3049451819178426e-38,21.0,9.0
-1.4056150241143232e-38,21.0,10.0
-1.2651382161820747e-38,21.0,11.0
9.619607073226182e-39,21.0,12.0
1.0495038861545361e-38,21.0,13.0
-1.2682863733120268e-38,21.0,14.0
-1.335124526554467e-38,21.0,15.0
-1.2520215020366087e-38,21.0,16.0
-1.1466711828394368e-38,21.0,17.0
1.2288479490723763e-38,21.0,18.0
7.918764246570363e-39,21.0,19.0
-1.3492993611703446e-38,21.0,20.0
1.0338796885370072e-38,21.0,21.0
-1.3151966610933037e-38,21.0,22.0
-1.1755270010765063e-38,21.0,23.0
-1.2970550307846153e-38,21.0,24.0
-1.3209412841478033e-38,21.0,25.0
8.735803927881127e-39,21.0,26.0
-8.427303867064626e-39,21.0,27.0
-2.8680072988867737e-38,21.0,28.0
-1.2985565220891394e-38,21.0,29.0
-1.308572583122594e-38,21.0,30.0
-1.3802707196990053e-38,21.0,31.0
1.0229988862212179e-38,22.0,0.0
-1.0882416611620242e-38,22.0,1.0
2.8896422261371774e-38,22.0,2.0
1.2016785935371217e-38,22.0,3.0
9.770931893090155e-39,22.0,4.0
3.337758417369139e-38,22.0,5.0
-1.2011571703785465e-38,22.0,6.0
1.3865922573312674e-38,22.0,7.0
1.447400343022025e-38,22.0,8.0
-1.0627331245666874e-38,22.0,9.0
1.6019338561096086e-38,22.0,10.0
3.109568733360943e-38,22.0,11.0
1.2296377208868698e-38,22.0,12.0
1.0175631093482555e-38,22.0,13.0
1.3126041188044564e-38,22.0,14.0
-1.353398579568034e-38,22.0,15.0
1.2767258334432695e-38,22.0,16.0
1.691145841282691e-38,22.0,17.0
-1.1395298856055446e-38,22.0,18.0
1.0400445610009578e-38,22.0,19.0
-1.1381176570131981e-38,22.0,20.0
-1.2736910413590812e-38,22.0,21.0
1.0529007737619059e-38,22.0,22.0
9.986318473549201e-39,22.0,23.0
-1.2946882376783707e-38,22.0,24.0
1.319264070015853e-38,22.0,25.0
-1.1624729249723956e-38,22.0,26.0
1.441395779102393e-38,22.0,27.0
1.2533265312964344e-38,22.0,28.0
-1.3108959359764444e-38,22.0,29.0
-1.32333274010702e-38,22.0,30.0
-9.457375947414369e-39,22.0,31.0
9.101710982885623e-39,23.0,0.0
1.1694893665131164e-38,23.0,1.0
-1.1967205193106477e-38,23.0,2.0
1.2327219788068487e-38,23.0,3.0
1.1501839578298062e-38,23.0,4.0
1.2147796131397873e-38,23.0,5.0
1.250125124824838e-38,23.0,6.0
1.1584450326665403e-38,23.0,7.0
-1.4525222290389786e-38,23.0,8.0
-1.288552792482171e-38,23.0,9.0
1.3102961802337134e-38,23.0,10.0
1.5580604623602165e-38,23.0,11.0
1.2193704070387619e-38,23.0,12.0
1.0580253222459417e-38,23.0,13.0
1.1240203142023976e-38,23.0,14.0
-1.2497809659219997e-38,23.0,15.0
1.290164145586298e-38,23.0,16.0
-1.096277126946002e-38,23.0,17.0
-1.1133107505589487e-38,23.0,18.0
9.591972066211232e-39,23.0,19.0
-1.5621970954269033e-38,23.0,20.0
1.2687146101227245e-38,23.0,21.0
-1.2685879327415495e-38,23.0,22.0
1.0196050814704696e-38,23.0,23.0
1.1384315478692069e-38,23.0,24.0
-1.0679271774545537e-38,23.0,25.0
-1.2135412856868635e-38,23.0,26.0
-1.278613382474715e-38,23.0,27.0
1.3373844005878836e-38,23.0,28.0
-1.2469469799077492e-38,23.0,29.0
1.4484441702481005e-38,23.0,30.0
-8.387137047883219e-39,23.0,31.0
1.1480129261190278e-38,24.0,0.0
-1.2020092999747024e-38,24.0,1.0
-1.5361201921744364e-38,24.0,2.0
-1.1537805304683423e-38,24.0,3.0
-1.058876611063019e-38,24.0,4.0
-1.228981632945873e-38,24.0,5.0
-1.0755855538217817e-38,24.0,6.0
1.6076315356655533e-38,24.0,7.0
1.1571534558719721e-38,24.0,8.0
1.2482189385238169e-38,24.0,9.0
1.245282797851517e-38,24.0,10.0
1.1977364606972832e-38,24.0,11.0
-1.076995119947046e-38,24.0,12.0
8.129263097985844e-39,24.0,13.0
1.326827578477046e-38,24.0,14.0
1.2318463073964921e-38,24.0,15.0
-1.2732944738936773e-38,24.0,16.0
-1.1976746634350064e-38,24.0,17.0
1.0779220788811969e-38,24.0,18.0
1.2212136750387347e-38,24.0,19.0
1.175754992336652e-38,24.0,20.0
-1.1437435900877694e-38,24.0,21.0
-1.1632925444441792e-38,24.0,22.0
-1.2499195543401215e-38,24.0,23.0
1.4374776084662945e-38,24.0,24.0
1.1137301591893211e-38,24.0,25.0
9.720650501593252e-39,24.0,26.0
-1.1725506431382804e-38,24.0,27.0
1.2951421182509655e-38,24.0,28.0
1.2198440459197036e-38,24.0,29.0
1.3144270679766965e-38,24.0,30.0
1.280728502376767e-38,24.0,31.0
-1.9154621962056468e-38,25.0,0.0
-1.3382537661551507e-38,25.0,1.0
1.3635795734307395e-38,25.0,2.0
-1.4094893341084885e-38,25.0,3.0
-1.4738030481674474e-38,25.0,4.0
-1.4057663643484703e-38,25.0,5.0
-1.3347729407697678e-38,25.0,6.0
-1.4027897261505515e-38,25.0,7.0
-1.2850777124204918e-38,25.0,8.0
-1.3550678062987377e-38,25.0,9.0
-1.335477093248091e-38,25.0,10.0
-1.4059057935456706e-38,25.0,11.0
-1.996821725174192e-38,25.0,12.0
-1.4087404802091533e-38,25.0,13.0
-1.4614037988357157e-38,25.0,14.0
6.093152607247992e-39,25.0,15.0
-1.3706482834041796e-38,25.0,16.0
-1.2187468292221373e-38,25.0,17.0
1.2247303736648043e-38,25.0,18.0
-1.2542265853000702e-38,25.0,19.0
-1.408200559910849e-38,25.0,20.0
1.2127854252952067e-38,25.0,21.0
-1.340472021624177e-38,25.0,22.0
1.1656720893664491e-38,25.0,23.0
-1.327087098952639e-38,25.0,24.0
-1.3429957601584259e-38,25.0,25.0
1.1989173349131697e-38,25.0,26.0
1.1383652664518443e-38,25.0,27.0
-1.2548161115640117e-38,25.0,28.0
-1.319286490791282e-38,25.0,29.0
-1.3361703155983925e-38,25.0,30.0
-1.343090067545075e-38,25.0,31.0
1.1450318037660232e-38,26.0,0.0
-1.259429186108569e-38,26.0,1.0
1.3195128004932706e-38,26.0,2.0
1.2593385220979272e-38,26.0,3.0
1.0776072071162631e-38,26.0,4.0
9.5022553333313e-39,26.0,5.0
1.2997221221517648e-38,26.0,6.0
1.2774616552668864e-38,26.0,7.0
-1.6440588497650627e-38,26.0,8.0
1.488898676004233e-38,26.0,9.0
-1.1180908598804535e-38,26.0,10.0
-1.2361872497792776e-38,26.0,11.0
1.4907887473729143e-38,26.0,12.0
1.1511051714402534e-38,26.0,13.0
1.3823212397418518e-38,26.0,14.0
1.0787125513449226e-38,26.0,15.0
-1.0727938870211538e-38,26.0,16.0
1.19367745956552e-38,26.0,17.0
-1.2576648112121376e-38,26.0,18.0
-1.185457582903637e-38,26.0,19.0
-1.0768327094550308e-38,26.0,20.0
-1.3312147637091543e-38,26.0,21.0
1.1947498732802677e-38,26.0,22.0
1.1620069932330076e-38,26.0,23.0
-1.2969203660021937e-38,26.0,24.0
-1.2565327021828096e-38,26.0,25.0
1.0765548319695552e-38,26.0,26.0
-3.071687992494236e-38,26.0,27.0
-1.1750396294706141e-38,26.0,28.0
-1.1276323011240412e-38,26.0,29.0
1.1330068412541126e-38,26.0,30.0
-1.2006633527997184e-38,26.0,31.0
2.7944290401607776e-38,27.0,0.0
-1.2109359915819908e-38,27.0,1.0
-1.2528907274740294e-38,27.0,2.0
-1.3960833919599858e-38,27.0,3.0
-1.1708260651182358e-38,27.0,4.0
-1.1873545206347935e-38,27.0,5.0
-1.259102263176842e-38,27.0,6.0
-1.2676229986190155e-38,27.0,7.0
-1.1001580230429496e-38,27.0,8.0
-1.2959278262999125e-38,27.0,9.0
-1.2941677954287205e-38,27.0,10.0
-1.1589686979026585e-38,27.0,11.0
1.787503888104444e-38,27.0,12.0
-1.1991949321389524e-38,27.0,13.0
-1.170877632901723e-38,27.0,14.0
-1.3778468937452627e-38,27.0,15.0
-1.2401651157299564e-38,27.0,16.0
-1.0958767759747444e-38,27.0,17.0
-1.261266708784838e-38,27.0,18.0
9.048842794423576e-39,27.0,19.0
-1.200978504824345e-38,27.0,20.0
1.2664737937484227e-38,27.0,21.0
-1.1466456792073861e-38,27.0,22.0
-1.2943460405933826e-38,27.0,23.0
-1.2377006521207484e-38,27.0,24.0
-1.1617633074300615e-38,27.0,25.0
8.774733400518535e-39,27.0,26.0
-1.7951053717540204e-39,27.0,27.0
-1.2622854527684022e-38,27.0,28.0
-1.178532786282483e-38,27.0,29.0
-1.1565326806522762e-38,27.0,30.0
-1.132009957526592e-38,27.0,31.0
-1.3192140436606765e-38,28.0,0.0
-1.369425230104517e-38,28.0,1.0
1.2236890687759645e-38,28.0,2.0
-1.4131500862166906e-38,28.0,3.0
-1.4136946307999273e-38,28.0,4.0
-1.3136671438194932e-38,28.0,5.0
-1.3297918852484788e-38,28.0,6.0
-1.4684360750490834e-38,28.0,7.0
-1.3552229300387385e-38,28.0,8.0
-1.4414331937713906e-38,28.0,9.0
-1.3175466386179764e-38,28.0,10.0
-1.2463473642948646e-38,28.0,11.0
-1.0473259880812824e-38,28.0,12.0
-1.2235671558095682e-38,28.0,13.0
-1.3999425679307364e-38,28.0,14.0
1.4881558476882944e-38,28.0,15.0
-1.365458994931092e-38,28.0,16.0
-1.1967984315052641e-38,28.0,17.0
1.2201478474267693e-38,28.0,18.0
1.1150529849396438e-38,28.0,19.0
-1.2868101377119366e-38,28.0,20.0
1.1231515091545162e-38,28.0,21.0
-1.4009017567295667e-38,28.0,22.0
-1.2572924862101665e-38,28.0,23.0
-1.4001273991981808e-38,28.0,24.0
-1.2744976287551466e-38,28.0,25.0
-1.897122422294103e-38,28.0,26.0
-1.2141997558352497e-38,28.0,27.0
1.1351022028478175e-38,28.0,28.0
-1.188635867950572e-38,28.0,29.0
-1.2350807845118467e-38,28.0,30.0
-1.4362531538681675e-38,28.0,31.0
-2.679603280877688e-38,29.0,0.0
-1.157573004632191e-38,29.0,1.0
-1.4598371471526006e-38,29.0,2.0
-1.4448885155247227e-38,29.0,3.0
-1.2346497451042204e-38,29.0,4.0
-1.135839145710206e-38,29.0,5.0
-1.3689409413552463e-38,29.0,6.0
-1.2930652537969897e-38,29.0,7.0
-1.1750463557032429e-38,29.0,8.0
-1.1677485334308856e-38,29.0,9.0
-1.1799926590226166e-38,29.0,10.0
-8.313095239625224e-39,29.0,11.0
5.950131882083608e-39,29.0,12.0
1.2927694396911707e-38,29.0,13.0
-1.1911384468780098e-38,29.0,14.0
1.1735244054411397e-38,29.0,15.0
-1.2221714625391007e-38,29.0,16.0
-1.0524473135788503e-38,29.0,17.0
-2.4660566053023e-38,29.0,18.0
1.1722367522822716e-38,29.0,19.0
-1.2234665425798297e-38,29.0,20.0
-1.2739762055965713e-38,29.0,21.0
-1.1491300412547875e-38,29.0,22.0
1.2265367875151654e-38,29.0,23.0
-1.2585218453529186e-38,29.0,24.0
-1.243868747571167e-38,29.0,25.0
1.232174491496837e-38,29.0,26.0
-9.866920837896405e-39,29.0,27.0
-2.778434619488974e-38,29.0,28.0
-9.898520118266929e-39,29.0,29.0
-1.0954265387781568e-38,29.0,30.0
-1.1924042397808344e-38,29.0,31.0
1.992399227220783e-38,30.0,0.0
-1.4670584585288057e-38,30.0,1.0
1.009103610648973e-38,30.0,2.0
-1.5205236001366547e-38,30.0,3.0
-1.4823337328287176e-38,30.0,4.0
-1.4811361831611056e-38,30.0,5.0
-1.3516740015479895e-38,30.0,6.0
-1.4158987331544638e-38,30.0,7.0
-1.326571280987921e-38,30.0,8.0
-1.5072911387380355e-38,30.0,9.0
-1.3293675720734813e-38,30.0,10.0
-1.3794474568512145e-38,30.0,11.0
-2.9898855130811175e-38,30.0,12.0
-1.1128085251893347e-38,30.0,13.0
-1.2903596267220714e-38,30.0,14.0
-2.1795499238833768e-38,30.0,15.0
-1.4705027100242696e-38,30.0,16.0
-1.4204593991364553e-38,30.0,17.0
1.1139962657676964e-38,30.0,18.0
-1.3188251833368264e-38,30.0,19.0
-1.306833291468674e-38,30.0,20.0
3.30523035637646e-38,30.0,21.0
-1.3745523009257886e-38,30.0,22.0
9.544825379379024e-39,30.0,23.0
-1.4924864204624438e-38,30.0,24.0
-1.3809573559465245e-38,30.0,25.0
-1.3144053478504995e-38,30.0,26.0
-2.307921194642016e-38,30.0,27.0
-1.272326877304061e-38,30.0,28.0
-1.4468807415514533e-38,30.0,29.0
-1.375052424347706e-38,30.0,30.0
-1.3938256198742657e-38,30.0,31.0
-6.161086155499995e-39,31.0,0.0
-1.492715532761361e-38,31.0,1.0
-1.3353946968983888e-38,31.0,2.0
-1.7465351058119044e-38,31.0,3.0
-1.6743955602192306e-38,31.0,4.0
-1.607153833019065e-38,31.0,5.0
-1.6918543377862535e-38,31.0,6.0
-1.6011471671517366e-38,31.0,7.0
-1.5326731380820438e-38,31.0,8.0
-1.6710820498704882e-38,31.0,9.0
-1.6675412489108322e-38,31.0,10.0
-1.6176973427944913e-38,31.0,11.0
2.3724537915211026e-38,31.0,12.0
-1.2726931767226355e-38,31.0,13.0
-1.6626973805092006e-38,31.0,14.0
-6.358405794858501e-40,31.0,15.0
-1.6710569666279767e-38,31.0,16.0
-1.5366396535151616e-38,31.0,17.0
1.3338040830115337e-38,31.0,18.0
-2.2572503823018771e-38,31.0,19.0
-1.5607373628166162e-38,31.0,20.0
5.676030895969352e-39,31.0,21.0
-1.556823536205757e-38,31.0,22.0
9.752245578068383e-39,31.0,23.0
-1.5817370814731414e-38,31.0,24.0
-1.536288908509541e-38,31.0,25.0
-1.1856096237870162e-38,31.0,26.0
-2.2626116100965375e-38,31.0,27.0
9.98520023737467e-39,31.0,28.0
-1.5467099447991854e-38,31.0,29.0
-1.6269759004461717e-38,31.0,30.0
-1.4994723136966423e-38,31.0,31.0
2.8420443211994563e-38,32.0,0.0
-1.4908438184025622e-38,32.0,1.0
-1.1960549025400934e-38,32.0,2.0
-1.7808765871472662e-38,32.0,3.0
-1.559898125166332e-38,32.0,4.0
-1.4874790205300255e-38,32.0,5.0
-1.5536236711624712e-38,32.0,6.0
-1.633251475488804e-38,32.0,7.0
-1.4478068597065256e-38,32.0,8.0
-1.500419591458526e-38,32.0,9.0
-1.4331106019320726e-38,32.0,10.0
-1.3615405440353005e-38,32.0,11.0
1.781493158471569e-39,32.0,12.0
1.1058757411669341e-38,32.0,13.0
-1.521108502115664e-38,32.0,14.0
1.188004022473008e-38,32.0,15.0
-1.4522261346734668e-38,32.0,16.0
-1.5050335067821618e-38,32.0,17.0
1.2944840684921186e-38,32.0,18.0
1.0870861504483419e-38,32.0,19.0
-1.4189255378374054e-38,32.0,20.0
1.1194432530283734e-38,32.0,21.0
-1.4589448002905185e-38,32.0,22.0
1.455585607611839e-38,32.0,23.0
-1.4840584509786086e-38,32.0,24.0
-1.455215524687411e-38,32.0,25.0
-1.204659295500587e-38,32.0,26.0
6.208276282584597e-39,32.0,27.0
1.1005814954388685e-38,32.0,28.0
-1.4018218493012424e-38,32.0,29.0
-1.316544289826445e-38,32.0,30.0
-1.502852665982133e-38,32.0,31.0
3.3042124531719744e-38,33.0,0.0
-1.276230614565977e-38,33.0,1.0
-1.3885453871308433e-38,33.0,2.0
-1.4966341237869988e-38,33.0,3.0
-1.2981382344975384e-38,33.0,4.0
-1.2223812369192102e-38,33.0,5.0
-1.271482454849459e-38,33.0,6.0
-1.3018994597056327e-38,33.0,7.0
-1.3205493409673316e-38,33.0,8.0
-1.335816347606304e-38,33.0,9.0
-1.385983953667904e-38,33.0,10.0
-1.255096511386723e-38,33.0,11.0
-3.328535070876953e-39,33.0,12.0
-1.3082015192892407e-38,33.0,13.0
-1.3377614900046334e-38,33.0,14.0
1.1511910710361165e-38,33.0,15.0
-1.3422244854836615e-38,33.0,16.0
-1.112891902447962e-38,33.0,17.0
1.8315286220879832e-38,33.0,18.0
-1.237356072828371e-38,33.0,19.0
-1.2687874776428694e-38,33.0,20.0
1.8747152394600098e-38,33.0,21.0
-1.2907385378268248e-38,33.0,22.0
1.2830662886048e-38,33.0,23.0
-1.2573685767167793e-38,33.0,24.0
-1.2860584812156728e-38,33.0,25.0
-1.2009258160020865e-38,33.0,26.0
3.3296219179658835e-38,33.0,27.0
3.361227083789958e-38,33.0,28.0
-1.1155930453677946e-38,33.0,29.0
-1.2764075985620213e-38,33.0,30.0
-1.3262499632500514e-38,33.0,31.0
3.2552774292395946e-38,34.0,0.0
-1.3551234378477714e-38,34.0,1.0
1.2724726123443508e-38,34.0,2.0
-1.3719783959065168e-38,34.0,3.0
-1.3881552656383753e-38,34.0,4.0
-1.4262438190673417e-38,34.0,5.0
-1.3660126479543467e-38,34.0,6.0
-1.3833546973592914e-38,34.0,7.0
-1.4268683777928913e-38,34.0,8.0
-1.4379185970930175e-38,34.0,9.0
-1.469621153160363e-38,34.0,10.0
-1.4087745317618364e-38,34.0,11.0
-3.1710131486843504e-38,34.0,12.0
-1.241600045357425e-38,34.0,13.0
-1.4215468067447714e-38,34.0,14.0
1.3782038044641262e-38,34.0,15.0
-1.425192845219098e-38,34.0,16.0
-1.415750055387399e-38,34.0,17.0
1.21533452733166e-38,34.0,18.0
1.24994435732294e-38,34.0,19.0
-1.5478840927824432e-38,34.0,20.0
1.3995300256628392e-38,34.0,21.0
-1.4462654313957683e-38,34.0,22.0
1.260764483415224e-38,34.0,23.0
-1.38876272852266e-38,34.0,24.0
-1.41320431646726e-38,34.0,25.0
1.0251941603954291e-38,34.0,26.0
1.5352988911444956e-38,34.0,27.0
1.366621231877403e-38,34.0,28.0
-1.504854701098114e-38,34.0,29.0
-1.5248683260252938e-38,34.0,30.0
-1.422493804246962e-38,34.0,31.0
-2.416635050543107e-38,35.0,0.0
-1.1668187718998061e-38,35.0,1.0
1.3391213100344142e-38,35.0,2.0
-1.4500363255632664e-38,35.0,3.0
-1.1923484681019542e-38,35.0,4.0
-1.201694848599308e-38,35.0,5.0
-1.2353176039523176e-38,35.0,6.0
-1.3728194552448045e-38,35.0,7.0
-1.1831569310849085e-38,35.0,8.0
-1.1875515431988775e-38,35.0,9.0
-1.3706129706828787e-38,35.0,10.0
-1.0743539526014866e-38,35.0,11.0
-1.0343311869022127e-38,35.0,12.0
-1.2346905228895322e-38,35.0,13.0
-1.2374376283989946e-38,35.0,14.0
-1.3044185739549494e-38,35.0,15.0
-1.1848878149480425e-38,35.0,16.0
-1.049487350832657e-38,35.0,17.0
-1.2592596289943857e-38,35.0,18.0
-1.2340188805355813e-38,35.0,19.0
-1.1258038868877902e-38,35.0,20.0
1.1553351309846643e-38,35.0,21.0
-1.239561996870911e-38,35.0,22.0
1.2243829917754982e-38,35.0,23.0
-1.346098234958441e-38,35.0,24.0
-1.1797048323180443e-38,35.0,25.0
1.0099938555633586e-38,35.0,26.0
1.1038870183863643e-38,35.0,27.0
-4.109230675216988e-39,35.0,28.0
-1.1344483569843636e-38,35.0,29.0
-1.1535438511577178e-38,35.0,30.0
-1.2237423181176089e-38,35.0,31.0
-9.608717582859914e-39,36.0,0.0
-1.2689662833269172e-38,36.0,1.0
-1.2095196992240977e-38,36.0,2.0
-1.4143748210745105e-38,36.0,3.0
-1.2837931421182453e-38,36.0,4.0
-1.1624402747181768e-38,36.0,5.0
-1.385499524788787e-38,36.0,6.0
-1.313879020147299e-38,36.0,7.0
-1.2114860012292383e-38,36.0,8.0
-1.266254210279063e-38,36.0,9.0
-1.239676062565907e-38,36.0,10.0
-1.2227319819248307e-38,36.0,11.0
1.0251955616938935e-38,36.0,12.0
1.0969553554027352e-38,36.0,13.0
-1.1351436812823615e-38,36.0,14.0
-1.4593158641238717e-38,36.0,15.0
-1.1779519480690204e-38,36.0,16.0
-1.0968152255563027e-38,36.0,17.0
-1.4017428160678545e-38,36.0,18.0
-1.2659858616231448e-38,36.0,19.0
-1.2073228836215757e-38,36.0,20.0
-1.238267897739107e-38,36.0,21.0
-1.235717534534036e-38,36.0,22.0
1.1276259952809518e-38,36.0,23.0
-1.3939298764800115e-38,36.0,24.0
-1.1209730505618768e-38,36.0,25.0
1.3644462765309244e-38,36.0,26.0
-1.1476515312450784e-38,36.0,27.0
1.5144097349368055e-38,36.0,28.0
-1.1509633600356637e-38,36.0,29.0
-1.1078023864255343e-38,36.0,30.0
-1.180825170440272e-38,36.0,31.0
-3.170815005081495e-38,37.0,0.0
-1.1611306211734188e-38,37.0,1.0
1.3281499838378295e-38,37.0,2.0
-1.3380554824224487e-38,37.0,3.0
-1.1078483490151642e-38,37.0,4.0
-1.1577293895408096e-38,37.0,5.0
-1.318139808257925e-38,37.0,6.0
-1.3703488259223534e-38,37.0,7.0
-1.0576497742575027e-38,37.0,8.0
-1.1024768917417143e-38,37.0,9.0
-1.177713026680853e-38,37.0,10.0
-8.814932449564621e-39,37.0,11.0
-1.764333698256526e-38,37.0,12.0
-1.3516072997410876e-38,37.0,13.0
-1.0341907767960873e-38,37.0,14.0
1.2555132575500133e-38,37.0,15.0
-1.0897228336388155e-38,37.0,16.0
-1.1337264080155434e-38,37.0,17.0
-1.645134346336432e-38,37.0,18.0
1.191928498952196e-38,37.0,19.0
-1.0227697739223008e-38,37.0,20.0
1.2997104913745109e-38,37.0,21.0
-1.2526704433554375e-38,37.0,22.0
2.7758394147330446e-38,37.0,23.0
-1.3026445300991142e-38,37.0,24.0
-1.1563374797761958e-38,37.0,25.0
1.2057377347987314e-38,37.0,26.0
1.7123728505501296e-38,37.0,27.0
1.2733311879134426e-38,37.0,28.0
-1.1206273502307279e-38,37.0,29.0
-1.0528766714283195e-38,37.0,30.0
-1.062605326146741e-38,37.0,31.0
-1.534080041740226e-38,38.0,0.0
-1.266820895378036e-38,38.0,1.0
-1.4310205652725322e-38,38.0,2.0
-1.5064925387432168e-38,38.0,3.0
-1.4234124955201734e-38,38.0,4.0
-1.403412603317944e-38,38.0,5.0
-1.389258788179031e-38,38.0,6.0
-1.4777065051696706e-38,38.0,7.0
-1.227717661731052e-38,38.0,8.0
-1.3684523085807362e-38,38.0,9.0
-1.2685763019642956e-38,38.0,10.0
-1.2156782658449588e-38,38.0,11.0
-3.368120351195665e-39,38.0,12.0
6.31630658509479e-39,38.0,13.0
-1.3956393204766413e-38,38.0,14.0
1.0268293355734498e-38,38.0,15.0
-1.2974950385024133e-38,38.0,16.0
-1.1900104016142283e-38,38.0,17.0
1.2285732945733687e-38,38.0,18.0
1.2635484430742982e-38,38.0,19.0
-1.2074789882705015e-38,38.0,20.0
1.0481000653529755e-38,38.0,21.0
-1.4335444439366276e-38,38.0,22.0
1.190935678990222e-38,38.0,23.0
-1.4095310928027254e-38,38.0,24.0
-1.2365122108931545e-38,38.0,25.0
1.251257934503398e-38,38.0,26.0
-7.518278750660188e-39,38.0,27.0
1.1845924212317628e-38,38.0,28.0
-1.1970244609475597e-38,38.0,29.0
-1.3014982679552965e-38,38.0,30.0
-1.287474493313873e-38,38.0,31.0
1.2530623865359092e-38,39.0,0.0
-9.720728974307254e-39,39.0,1.0
1.4132404699676396e-38,39.0,2.0
1.5649639592447127e-38,39.0,3.0
-1.1904710084194519e-38,39.0,4.0
9.519583790141141e-39,39.0,5.0
1.3566324961640028e-38,39.0,6.0
1.4353682338879463e-38,39.0,7.0
1.1452602154157081e-38,39.0,8.0
-1.1618728889699717e-38,39.0,9.0
-1.1177034008550677e-38,39.0,10.0
-1.1622709978636864e-38,39.0,11.0
-1.110114108502131e-38,39.0,12.0
-1.0906336776406266e-38,39.0,13.0
-1.2258900882738795e-38,39.0,14.0
1.290811825736509e-38,39.0,15.0
1.2548475006496125e-38,39.0,16.0
1.1472315620953203e-38,39.0,17.0
-1.1364953737810493e-38,39.0,18.0
1.0076515851802396e-38,39.0,19.0
-1.2749482863412735e-38,39.0,20.0
-1.3026380841261783e-38,39.0,21.0
1.1225923910672506e-38,39.0,22.0
1.1244577995829598e-38,39.0,23.0
-1.336112441971816e-38,39.0,24.0
1.2980456086690465e-38,39.0,25.0
-1.162123441135393e-38,39.0,26.0
-1.2087913042823416e-38,39.0,27.0
-1.2154585422457527e-38,39.0,28.0
1.3204504092957503e-38,39.0,29.0
1.1408007231828408e-38,39.0,30.0
-1.1154889288918952e-38,39.0,31.0
2.5171507499085117e-38,40.0,0.0
-1.2808358418391342e-38,40.0,1.0
-1.3021193234346852e-38,40.0,2.0
-1.4408581008816317e-38,40.0,3.0
-1.38812247525431e-38,40.0,4.0
-1.285637951546529e-38,40.0,5.0
-1.3560351226286612e-38,40.0,6.0
-1.482345503735818e-38,40.0,7.0
-1.2845414354981947e-38,40.0,8.0
-1.363941668953921e-38,40.0,9.0
-1.39113834980923e-38,40.0,10.0
-1.2050613280300019e-38,40.0,11.0
2.0322092758131724e-38,40.0,12.0
1.1831757084843304e-38,40.0,13.0
-1.2012070566038764e-38,40.0,14.0
-1.2576758814700058e-38,40.0,15.0
-1.326302932332003e-38,40.0,16.0
-1.1914820452614622e-38,40.0,17.0
1.3330724650833097e-38,40.0,18.0
-1.1794297574294973e-38,40.0,19.0
-1.3320894542105858e-38,40.0,20.0
-1.366549345266183e-38,40.0,21.0
-1.4413527592395383e-38,40.0,22.0
1.150603786849718e-38,40.0,23.0
-1.335905750448328e-38,40.0,24.0
-1.2194212741730168e-38,40.0,25.0
1.0240841918818375e-38,40.0,26.0
-1.4176331202637586e-38,40.0,27.0
1.2998217544725783e-38,40.0,28.0
-1.2114980523960315e-38,40.0,29.0
-1.1878357265274426e-38,40.0,30.0
-1.1959318685349257e-38,40.0,31.0
3.073165801854713e-38,41.0,0.0
-1.6272633067612047e-38,41.0,1.0
1.2151499763239084e-38,41.0,2.0
-1.7190054764414719e-38,41.0,3.0
-1.49951365200134e-38,41.0,4.0
-1.583391314310277e-38,41.0,5.0
-1.5716599238266424e-38,41.0,6.0
-1.492660461731713e-38,41.0,7.0
-1.6502248432677847e-38,41.0,8.0
-1.6090368978954247e-38,41.0,9.0
-1.6607326199323708e-38,41.0,10.0
-1.517805221245711e-38,41.0,11.0
2.8211921592712245e-39,41.0,12.0
-1.5236420497391632e-38,41.0,13.0
-1.5215300126937328e-38,41.0,14.0
-1.556913639697013e-38,41.0,15.0
-1.4814060732453346e-38,41.0,16.0
-1.6278996363938546e-38,41.0,17.0
-1.1587678918327208e-38,41.0,18.0
1.1352201921785137e-38,41.0,19.0
-1.631632695502816e-38,41.0,20.0
-1.545996964140537e-38,41.0,21.0
-1.6531594425117737e-38,41.0,22.0
1.1200050335827212e-38,41.0,23.0
-1.6049801388412043e-38,41.0,24.0
-1.6040304788719314e-38,41.0,25.0
1.0227449709394822e-38,41.0,26.0
-8.279571976463182e-40,41.0,27.0
-1.2708122137939723e-38,41.0,28.0
-1.585431044354948e-38,41.0,29.0
-1.4851914007870152e-38,41.0,30.0
-1.6569129605783142e-38,41.0,31.0
7.133570474159846e-39,42.0,0.0
-1.472726850946846e-38,42.0,1.0
1.293648894607381e-38,42.0,2.0
-1.3955387072469028e-38,42.0,3.0
-1.3727414029203416e-38,42.0,4.0
-1.3597573917394472e-38,42.0,5.0
-1.3834477435773225e-38,42.0,6.0
-1.4058267603122827e-38,42.0,7.0
-1.3419617420216006e-38,42.0,8.0
-1.3996089187663806e-38,42.0,9.0
-1.4277214882979723e-38,42.0,10.0
-1.3017883367374117e-38,42.0,11.0
-3.0056646943088007e-38,42.0,12.0
-1.7950707596819516e-38,42.0,13.0
-1.3636235742025193e-38,42.0,14.0
-1.1805569619142002e-38,42.0,15.0
-1.333881014297225e-38,42.0,16.0
-1.2978492867541946e-38,42.0,17.0
-1.3529986489863157e-38,42.0,18.0
1.2310007639031185e-38,42.0,19.0
-1.3938145496163975e-38,42.0,20.0
-1.194625858366175e-38,42.0,21.0
-1.3291537339278253e-38,42.0,22.0
-1.2026862672628177e-38,42.0,23.0
-1.3365413794317458e-38,42.0,24.0
-1.282715683729026e-38,42.0,25.0
1.2281737843811897e-38,42.0,26.0
2.7617866332134096e-38,42.0,27.0
-1.4042689368094928e-38,42.0,28.0
-1.3129154873232293e-38,42.0,29.0
-1.4123950666041124e-38,42.0,30.0
-1.4789065771745184e-38,42.0,31.0
1.0883908994484748e-38,43.0,0.0
-1.533016316075957e-38,43.0,1.0
1.2899287274442915e-38,43.0,2.0
-1.1496699615530919e-38,43.0,3.0
-1.1651091877733299e-38,43.0,4.0
8.873562777311971e-39,43.0,5.0
-1.5273540893711596e-38,43.0,6.0
1.3910238637246946e-38,43.0,7.0
1.1560397038525268e-38,43.0,8.0
5.928820935038156e-39,43.0,9.0
1.2221923418862192e-38,43.0,10.0
1.2170511179504579e-38,43.0,11.0
1.1445936177362288e-38,43.0,12.0
-1.017730144125203e-38,43.0,13.0
-1.5195142448528016e-38,43.0,14.0
1.4882081161210137e-38,43.0,15.0
-1.0883454973782306e-38,43.0,16.0
1.2146812419875917e-38,43.0,17.0
1.1360884367070093e-38,43.0,18.0
-1.1137740198312545e-38,43.0,19.0
-1.2898758984921864e-38,43.0,20.0
-1.2566855838452674e-38,43.0,21.0
1.0199303228440394e-38,43.0,22.0
-1.1959991308612133e-38,43.0,23.0
-1.3593297154481352e-38,43.0,24.0
1.2778188462454428e-38,43.0,25.0
-1.5568664159387653e-38,43.0,26.0
-1.182486690029422e-38,43.0,27.0
-1.1886634735303193e-38,43.0,28.0
1.3286596360893044e-38,43.0,29.0
1.546859463345329e-38,43.0,30.0
1.1595136628754344e-38,43.0,31.0
1.7658768081254405e-38,44.0,0.0
-1.1335938451808183e-38,44.0,1.0
1.2259150313865445e-38,44.0,2.0
-1.3579079580262313e-38,44.0,3.0
-1.3061413302869903e-38,44.0,4.0
-1.2634772571123105e-38,44.0,5.0
-1.4396983862725565e-38,44.0,6.0
-1.4090217208109433e-38,44.0,7.0
-1.3168396835427246e-38,44.0,8.0
-1.2566547552790523e-38,44.0,9.0
-1.2830730148374287e-38,44.0,10.0
-1.117569997241264e-38,44.0,11.0
-3.127539825646523e-39,44.0,12.0
1.642614811697576e-38,44.0,13.0
-1.3151250547417767e-38,44.0,14.0
1.1689434206314154e-38,44.0,15.0
-1.2244446489079285e-38,44.0,16.0
-1.21456857759106e-38,44.0,17.0
-1.3001888946702314e-38,44.0,18.0
-1.260490669695295e-38,44.0,19.0
-1.2485859385916235e-38,44.0,20.0
1.2977483932647633e-38,44.0,21.0
-1.375918146538966e-38,44.0,22.0
-1.3587666737251695e-38,44.0,23.0
-1.262331415358032e-38,44.0,24.0
-1.3171769760830875e-38,44.0,25.0
1.1783049351521838e-38,44.0,26.0
2.1840633661071206e-38,44.0,27.0
-1.2452664026594845e-38,44.0,28.0
-1.2583180965562058e-38,44.0,29.0
-1.1245888209893741e-38,44.0,30.0
-1.2625755215505175e-38,44.0,31.0
-1.6446705165447404e-38,45.0,0.0
-1.3391291573058144e-38,45.0,1.0
1.3271176472591614e-38,45.0,2.0
-1.493910560091737e-38,45.0,3.0
-1.2097437668485432e-38,45.0,4.0
-1.2345495522640211e-38,45.0,5.0
-1.3137732221132426e-38,45.0,6.0
-1.3313775945907088e-38,45.0,7.0
-1.2651883826670975e-38,45.0,8.0
-1.2163953102691538e-38,45.0,9.0
-1.2124741969062801e-38,45.0,10.0
-1.267562602655203e-38,45.0,11.0
-9.879959920106947e-39,45.0,12.0
1.14909262658579e-38,45.0,13.0
-1.2214569404521415e-38,45.0,14.0
-1.3381024259210036e-38,45.0,15.0
-1.1848034567804901e-38,45.0,16.0
-1.1686118734147562e-38,45.0,17.0
-1.2232475196298558e-38,45.0,18.0
1.1149906271579813e-38,45.0,19.0
-1.317396139162908e-38,45.0,20.0
-1.2533266714262808e-38,45.0,21.0
-1.3372263341211077e-38,45.0,22.0
-1.201121997787092e-38,45.0,23.0
-1.2647188075517023e-38,45.0,24.0
-1.1619119851971264e-38,45.0,25.0
8.054408536618541e-39,45.0,26.0
-1.9533172933104567e-38,45.0,27.0
1.1942099529819633e-38,45.0,28.0
-1.1289011768834873e-38,45.0,29.0
-1.2810690179035978e-38,45.0,30.0
-1.1508492943406677e-38,45.0,31.0
3.3116337298390387e-38,46.0,0.0
-1.1003837722255523e-38,46.0,1.0
1.4272554164287378e-38,46.0,2.0
-1.3431071633863397e-38,46.0,3.0
-1.3400488294879508e-38,46.0,4.0
-1.3479485094507355e-38,46.0,5.0
-1.370242747628604e-38,46.0,6.0
-1.3524241166159425e-38,46.0,7.0
-1.204393609311751e-38,46.0,8.0
-1.2917265933740202e-38,46.0,9.0
-1.3500640497423267e-38,46.0,10.0
-1.1617833459981013e-38,46.0,11.0
-1.2578223171595277e-39,46.0,12.0
1.2762767172854534e-38,46.0,13.0
-1.2093317851000317e-38,46.0,14.0
1.2398893401921773e-38,46.0,15.0
-1.3240172744068427e-38,46.0,16.0
-1.0981397328647825e-38,46.0,17.0
-1.6690228417771628e-38,46.0,18.0
1.210885544837275e-38,46.0,19.0
-1.1826265396161615e-38,46.0,20.0
-1.285150019421251e-38,46.0,21.0
-1.1753743996737413e-38,46.0,22.0
1.285168796820673e-38,46.0,23.0
-1.352891169394102e-38,46.0,24.0
-1.2526726854329804e-38,46.0,25.0
-1.1521697378836009e-38,46.0,26.0
3.340039170749674e-38,46.0,27.0
1.303806066396193e-38,46.0,28.0
-1.0448327978535557e-38,46.0,29.0
-1.0652023525906741e-38,46.0,30.0
-1.217643166551635e-38,46.0,31.0
1.7406109764241248e-38,47.0,0.0
-1.2809769525944917e-38,47.0,1.0
-1.4583227639022047e-38,47.0,2.0
-1.3352083242026336e-38,47.0,3.0
-1.276389381681985e-38,47.0,4.0
-1.2791722203022877e-38,47.0,5.0
-1.3220335963007445e-38,47.0,6.0
-1.432953936763761e-38,47.0,7.0
-1.288950060596807e-38,47.0,8.0
-1.3208612700054904e-38,47.0,9.0
-1.248479159648642e-38,47.0,10.0
-1.3032434450627666e-38,47.0,11.0
-2.380360477976209e-39,47.0,12.0
-1.953615489623665e-38,47.0,13.0
-1.2655167068972888e-38,47.0,14.0
1.1082660760873794e-38,47.0,15.0
-1.2727083107460502e-38,47.0,16.0
-1.2244386233245319e-38,47.0,17.0
1.1520986920514597e-38,47.0,18.0
-4.274435356370098e-39,47.0,19.0
-1.258745492587825e-38,47.0,20.0
1.234949622975586e-38,47.0,21.0
-1.33441855238814e-38,47.0,22.0
1.3884386081878618e-38,47.0,23.0
-1.3261468276830771e-38,47.0,24.0
-1.372205266127891e-38,47.0,25.0
-1.514801257727738e-38,47.0,26.0
-2.7264301914003373e-38,47.0,27.0
1.0910764879553533e-38,47.0,28.0
-1.3062900080540552e-38,47.0,29.0
-1.2313075081369592e-38,47.0,30.0
-1.2517518922120726e-38,47.0,31.0
-2.479121751664279e-38,48.0,0.0
-1.0971641488739196e-38,48.0,1.0
1.1453468156608034e-38,48.0,2.0
-1.4173391278459433e-38,48.0,3.0
-1.1790387951579507e-38,48.0,4.0
-1.0876347587971251e-38,48.0,5.0
-1.2502743631112885e-38,48.0,6.0
-1.3374027575977662e-38,48.0,7.0
-1.078193930783276e-38,48.0,8.0
-1.1866006220609867e-38,48.0,9.0
-1.202149429821135e-38,48.0,10.0
-1.0312888278063171e-38,48.0,11.0
4.2410760451283816e-39,48.0,12.0
1.3822913920845617e-38,48.0,13.0
-1.1611939598640063e-38,48.0,14.0
1.21118780491603e-38,48.0,15.0
-1.099215930085384e-38,48.0,16.0
-8.69867932766577e-39,48.0,17.0
-1.4467975044226724e-38,48.0,18.0
1.174090249761034e-38,48.0,19.0
-1.045924829746804e-38,48.0,20.0
-1.2455311079393954e-38,48.0,21.0
-1.1171732896460136e-38,48.0,22.0
1.1343750690746794e-38,48.0,23.0
-1.1409736434133385e-38,48.0,24.0
-1.108115296372618e-38,48.0,25.0
-1.287914501031671e-38,48.0,26.0
-1.069092076867947e-38,48.0,27.0
-1.323753269776164e-38,48.0,28.0
-1.0418212673238753e-38,48.0,29.0
-9.225582964535008e-39,48.0,30.0
-1.074156089258324e-38,48.0,31.0
-1.422236525848912e-38,49.0,0.0
-1.3306573271800459e-38,49.0,1.0
1.4016089920645115e-38,49.0,2.0
-1.4783198535075056e-38,49.0,3.0
-1.2738870830142403e-38,49.0,4.0
-1.3109718863532108e-38,49.0,5.0
-1.3361179070358268e-38,49.0,6.0
-1.2766638960511463e-38,49.0,7.0
-1.329489625169724e-38,49.0,8.0
-1.2767779617461424e-38,49.0,9.0
-1.3752036244520068e-38,49.0,10.0
-1.1931659856260413e-38,49.0,11.0
3.103850314587726e-38,49.0,12.0
1.4074263425093095e-38,49.0,13.0
-1.317516370571147e-38,49.0,14.0
1.1533557969038055e-38,49.0,15.0
-1.3244689129018946e-38,49.0,16.0
-1.230899169764455e-38,49.0,17.0
1.258789633489451e-38,49.0,18.0
1.0744406929764284e-38,49.0,19.0
-1.2502529232447843e-38,49.0,20.0
-1.3422354156116832e-38,49.0,21.0
-1.3140925780332622e-38,49.0,22.0
1.2369033132945475e-38,49.0,23.0
-1.2977461511872203e-38,49.0,24.0
-1.1860930717572083e-38,49.0,25.0
1.0479697445957933e-38,49.0,26.0
2.4464387070614457e-39,49.0,27.0
1.2790807155125673e-38,49.0,28.0
-1.1231133938362865e-38,49.0,29.0
-1.1582859852908395e-38,49.0,30.0
-1.2626950523095244e-38,49.0,31.0
2.354139381111763e-40,50.0,0.0
1.528313978819222e-38,50.0,1.0
-1.1970704235371896e-38,50.0,2.0
2.6580748523105727e-38,50.0,3.0
-2.3562553417928934e-38,50.0,4.0
-2.63515073047299e-38,50.0,5.0
2.8251959492434933e-38,50.0,6.0
-8.239412163774097e-39,50.0,7.0
2.755453324674047e-38,50.0,8.0
5.2039908965753586e-39,50.0,9.0
-8.728435900555707e-39,50.0,10.0
-1.0713050074028087e-38,50.0,11.0
-1.365069574087856e-38,50.0,12.0
-2.1084973655094798e-39,50.0,13.0
-6.72184796586425e-39,50.0,14.0
9.308821494614367e-39,50.0,15.0
1.4629230866307367e-38,50.0,16.0
1.8586339382834182e-38,50.0,17.0
-1.2332166371647554e-38,50.0,18.0
1.0754866221502004e-38,50.0,19.0
-2.734682998576132e-39,50.0,20.0
1.247677196537509e-38,50.0,21.0
3.985152702693347e-40,50.0,22.0
-1.264620576529353e-38,50.0,23.0
-3.2264146045102035e-38,50.0,24.0
4.6320985725089715e-39,50.0,25.0
1.2468755136860687e-38,50.0,26.0
3.045535278994849e-38,50.0,27.0
-1.3399103811996755e-38,50.0,28.0
-1.682402019124997e-38,50.0,29.0
8.75650951398999e-39,50.0,30.0
-4.739728103658368e-39,50.0,31.0
-1.2775056560386662e-38,51.0,0.0
-1.0898783777683556e-38,51.0,1.0
2.5825913881924807e-38,51.0,2.0
-1.3864909434522967e-38,51.0,3.0
9.639839020454104e-39,51.0,4.0
-1.1168096526945214e-38,51.0,5.0
-1.291604680407624e-38,51.0,6.0
1.5446982407238007e-38,51.0,7.0
-1.6843604738587373e-38,51.0,8.0
1.2858047060637835e-38,51.0,9.0
1.2271582633840935e-38,51.0,10.0
1.1556358496351084e-38,51.0,11.0
-1.4896941931424302e-38,51.0,12.0
1.0254028137367671e-38,51.0,13.0
-1.3155815977814537e-38,51.0,14.0
1.7429191952545606e-38,51.0,15.0
-1.0475880308941112e-38,51.0,16.0
1.215941709956252e-38,51.0,17.0
-1.1802226121006123e-38,51.0,18.0
1.2929595958927796e-38,51.0,19.0
1.2363638133857825e-38,51.0,20.0
1.110488675581645e-38,51.0,21.0
-1.304319922543061e-38,51.0,22.0
1.1854923351055522e-38,51.0,23.0
-1.2743000456716768e-38,51.0,24.0
-1.2091773620092631e-38,51.0,25.0
1.0129884303816207e-38,51.0,26.0
1.112402288764527e-38,51.0,27.0
1.4615002081700613e-38,51.0,28.0
-1.1423851713564529e-38,51.0,29.0
1.3271521192013838e-38,51.0,30.0
1.176053749169246e-38,51.0,31.0
2.792439756860822e-38,52.0,0.0
-1.5437724028284213e-38,52.0,1.0
1.327110080247454e-38,52.0,2.0
-1.695724163625333e-38,52.0,3.0
-1.6655832145666311e-38,52.0,4.0
-1.6310120604129664e-38,52.0,5.0
-1.7133859893398365e-38,52.0,6.0
-1.5569108371000844e-38,52.0,7.0
-1.48101581162302e-38,52.0,8.0
-1.585775483517479e-38,52.0,9.0
-1.6253075144945465e-38,52.0,10.0
-1.5085438995651419e-38,52.0,11.0
5.7934428916982e-39,52.0,12.0
1.4294740922873033e-38,52.0,13.0
-1.5679941270439687e-38,52.0,14.0
-1.2963374258410346e-38,52.0,15.0
-1.6243827976379386e-38,52.0,16.0
-1.5096060838011e-38,52.0,17.0
1.269548803098537e-38,52.0,18.0
-2.0101260731840312e-38,52.0,19.0
-1.5822215103522585e-38,52.0,20.0
-1.5830795254019646e-38,52.0,21.0
-1.628930431544212e-38,52.0,22.0
1.2380167850543e-38,52.0,23.0
-1.641769828723588e-38,52.0,24.0
-1.5914707808660345e-38,52.0,25.0
-2.828156052119533e-38,52.0,26.0
-9.488843505729247e-39,52.0,27.0
1.192000105303723e-38,52.0,28.0
-1.53082440501806e-38,52.0,29.0
-1.5871704761387145e-38,52.0,30.0
-1.6407796712286961e-38,52.0,31.0
-1.778834895284745e-39,53.0,0.0
-1.3491564287269835e-38,53.0,1.0
1.5188350354871433e-38,53.0,2.0
-1.5274905758415848e-38,53.0,3.0
-1.4085839551706882e-38,53.0,4.0
-1.4397726550911657e-38,53.0,5.0
-1.3397935129077508e-38,53.0,6.0
-1.3636363260185447e-38,53.0,7.0
-1.2790369950004804e-38,53.0,8.0
-1.4024843832151752e-38,53.0,9.0
-1.334350449282774e-38,53.0,10.0
-1.3827655914848892e-38,53.0,11.0
-3.6624658962240214e-39,53.0,12.0
-1.536778802452669e-38,53.0,13.0
-1.2464128049331486e-38,53.0,14.0
1.2824834885734873e-38,53.0,15.0
-1.3317597286819302e-38,53.0,16.0
-1.20497262583721e-38,53.0,17.0
-1.2124865283327662e-38,53.0,18.0
1.7270217444364884e-38,53.0,19.0
-1.364602941699236e-38,53.0,20.0
1.2107982439429477e-38,53.0,21.0
-1.442818517433222e-38,53.0,22.0
-1.4735711332716017e-38,53.0,23.0
-1.302636402568021e-38,53.0,24.0
-1.3168443078276568e-38,53.0,25.0
1.1976837718750246e-38,53.0,26.0
1.7008334379561076e-38,53.0,27.0
1.1171123331628155e-38,53.0,28.0
-1.2535615290489017e-38,53.0,29.0
-1.1608817505661547e-38,53.0,30.0
-1.397059676600081e-38,53.0,31.0
-1.2044611518977315e-38,54.0,0.0
-1.213666561769574e-38,54.0,1.0
1.4875787929806854e-38,54.0,2.0
1.358003806841191e-38,54.0,3.0
-1.1414425178795016e-38,54.0,4.0
1.132108468808634e-38,54.0,5.0
-1.1095083271760033e-38,54.0,6.0
-1.4354748727010815e-38,54.0,7.0
1.2734232532225488e-38,54.0,8.0
-1.2312169842561639e-38,54.0,9.0
-1.1497604854338873e-38,54.0,10.0
-1.4994936134333e-38,54.0,11.0
-1.156211503044253e-38,54.0,12.0
1.0343021800240012e-38,54.0,13.0
1.222573635198362e-38,54.0,14.0
1.182762465567201e-38,54.0,15.0
-1.1073726081865259e-38,54.0,16.0
-1.0698490582983752e-38,54.0,17.0
-1.5530354060671477e-38,54.0,18.0
-1.137714223185319e-38,54.0,19.0
1.2648433829851808e-38,54.0,20.0
1.1534971879188558e-38,54.0,21.0
1.1113555188116763e-38,54.0,22.0
1.1151683118032577e-38,54.0,23.0
1.326741678881183e-38,54.0,24.0
1.1977294542049615e-38,54.0,25.0
1.1233347989936499e-38,54.0,26.0
1.3232189546717169e-38,54.0,27.0
-1.2855685872725448e-38,54.0,28.0
-1.310221491025565e-38,54.0,29.0
1.212585600134194e-38,54.0,30.0
-1.0109175915110415e-38,54.0,31.0
2.96918048749164e-38,55.0,0.0
-1.3137124057598909e-38,55.0,1.0
-1.3285664497414268e-38,55.0,2.0
-1.3778225111519834e-38,55.0,3.0
-1.402176517942563e-38,55.0,4.0
-1.231552735368216e-38,55.0,5.0
-1.4349821761610249e-38,55.0,6.0
-1.4564940694062609e-38,55.0,7.0
-1.3054670254659572e-38,55.0,8.0
-1.4492970004934886e-38,55.0,9.0
-1.331587929490204e-38,55.0,10.0
-1.3502600913974857e-38,55.0,11.0
-1.0302063247426261e-38,55.0,12.0
-1.2234755108900014e-38,55.0,13.0
-1.2863126767571013e-38,55.0,14.0
2.074345479856341e-38,55.0,15.0
-1.2964605999760487e-38,55.0,16.0
-1.1007689891733952e-38,55.0,17.0
1.5386108600649273e-38,55.0,18.0
1.1908241356324617e-38,55.0,19.0
-1.1784604792817238e-38,55.0,20.0
-1.30374805263977e-38,55.0,21.0
-1.3207530897640445e-38,55.0,22.0
1.2954648372872995e-38,55.0,23.0
-1.329618264368749e-38,55.0,24.0
-1.3627448199355412e-38,55.0,25.0
-1.3353754991094275e-38,55.0,26.0
1.8634487998068382e-38,55.0,27.0
1.0632076042267078e-38,55.0,28.0
-1.1737369824181778e-38,55.0,29.0
-1.3102394276459082e-38,55.0,30.0
-1.3607462880657212e-38,55.0,31.0
-2.8704424753580774e-38,56.0,0.0
-1.3757434046204647e-38,56.0,1.0
1.4475708810451333e-38,56.0,2.0
-1.4889541674234202e-38,56.0,3.0
-1.4960482408990646e-38,56.0,4.0
-1.354167472035409e-38,56.0,5.0
-1.461341020664514e-38,56.0,6.0
-1.3525334178961599e-38,56.0,7.0
-1.4069419136301924e-38,56.0,8.0
-1.4873814901569085e-38,56.0,9.0
-1.3131413766356785e-38,56.0,10.0
-1.4059645079513258e-38,56.0,11.0
1.4802490211033416e-39,56.0,12.0
1.1388871099999589e-38,56.0,13.0
-1.4390209985949018e-38,56.0,14.0
1.1188031398898698e-38,56.0,15.0
-1.4745223346691854e-38,56.0,16.0
-1.3317594484222373e-38,56.0,17.0
-1.287629336794181e-38,56.0,18.0
1.3159354256436958e-38,56.0,19.0
-1.4678911100763075e-38,56.0,20.0
1.26474010728836e-38,56.0,21.0
-1.4796268445851814e-38,56.0,22.0
1.1166570512917564e-38,56.0,23.0
-1.4392376393374865e-38,56.0,24.0
-1.390208728407997e-38,56.0,25.0
1.0311536025045097e-38,56.0,26.0
8.430908006714869e-39,56.0,27.0
1.416658657311667e-38,56.0,28.0
-1.30116700099833e-38,56.0,29.0
-1.4693743845007953e-38,56.0,30.0
-1.3295332055519645e-38,56.0,31.0
-3.866642088968469e-39,57.0,0.0
-1.5336976273893116e-38,57.0,1.0
-1.302303313923051e-38,57.0,2.0
-1.4108086566126503e-38,57.0,3.0
-1.474095779416645e-38,57.0,4.0
-1.494396530399165e-38,57.0,5.0
-1.422277303634224e-38,57.0,6.0
-1.5384352773673474e-38,57.0,7.0
-1.5190778805110108e-38,57.0,8.0
-1.4224576507465825e-38,57.0,9.0
-1.4174260083507314e-38,57.0,10.0
-1.3631010300051726e-38,57.0,11.0
1.3231151184555104e-38,57.0,12.0
9.978352091779514e-39,57.0,13.0
-1.4157350614938306e-38,57.0,14.0
-1.2532524026076716e-38,57.0,15.0
-1.4535859547032476e-38,57.0,16.0
-1.447500816121917e-38,57.0,17.0
-1.2300879580834574e-38,57.0,18.0
1.0672841215892751e-38,57.0,19.0
-1.4188532308366462e-38,57.0,20.0
7.219116942809947e-39,57.0,21.0
-1.3397301742171633e-38,57.0,22.0
-1.4427560195217132e-38,57.0,23.0
-1.4736392363769679e-38,57.0,24.0
-1.4884589485461278e-38,57.0,25.0
1.3203869304753164e-38,57.0,26.0
5.3112911225856385e-39,57.0,27.0
9.717828286486101e-39,57.0,28.0
-1.4438840647854947e-38,57.0,29.0
-1.4721130822194717e-38,57.0,30.0
-1.4095742527954266e-38,57.0,31.0
1.6168665129349931e-38,58.0,0.0
-1.478162207430269e-38,58.0,1.0
1.2519812847706826e-38,58.0,2.0
-1.4356047730687244e-38,58.0,3.0
-1.4210147337178672e-38,58.0,4.0
-1.5034988047040332e-38,58.0,5.0
-1.4429782654581551e-38,58.0,6.0
-1.3273312051451245e-38,58.0,7.0
-1.386725941204764e-38,58.0,8.0
-1.5151420535142617e-38,58.0,9.0
-1.38217676587018e-38,58.0,10.0
-1.3069291402836337e-38,58.0,11.0
1.5158766141692608e-38,58.0,12.0
1.1523730662907745e-38,58.0,13.0
-1.4878985692902443e-38,58.0,14.0
1.0877353720268636e-38,58.0,15.0
-1.363512311104452e-38,58.0,16.0
-1.4180299679888554e-38,58.0,17.0
-1.397344840837571e-38,58.0,18.0
1.2337774368101782e-38,58.0,19.0
-1.3205479396688673e-38,58.0,20.0
1.1662483032949795e-38,58.0,21.0
-1.393221099716756e-38,58.0,22.0
1.4033789721548e-38,58.0,23.0
-1.4175561889780672e-38,58.0,24.0
-1.3553312504100308e-38,58.0,25.0
-1.207454885936915e-38,58.0,26.0
-1.315788709694481e-38,58.0,27.0
1.199859988390121e-38,58.0,28.0
-1.4419766173158558e-38,58.0,29.0
-1.445174380411445e-38,58.0,30.0
-1.3653803820872434e-38,58.0,31.0
1.0865481919678876e-38,59.0,0.0
-1.6453720065559814e-38,59.0,1.0
1.2090875387777e-38,59.0,2.0
1.2148865322126153e-38,59.0,3.0
-1.382595754111013e-38,59.0,4.0
9.286239569861772e-39,59.0,5.0
-1.0665356880794792e-38,59.0,6.0
1.1396145240327899e-38,59.0,7.0
-1.423190109453885e-38,59.0,8.0
-1.2170812458674408e-38,59.0,9.0
-1.1140000492735501e-38,59.0,10.0
-3.4221922550385666e-38,59.0,11.0
1.2160021059200643e-38,59.0,12.0
-1.7806972209438326e-39,59.0,13.0
-1.2972140781603162e-38,59.0,14.0
-1.0997307671411769e-38,59.0,15.0
-1.053238766951501e-38,59.0,16.0
-1.1138219442387344e-38,59.0,17.0
1.107592331785732e-38,59.0,18.0
9.022403094998696e-39,59.0,19.0
-1.2126995256993436e-38,59.0,20.0
1.2773952337196774e-38,59.0,21.0
-1.2025060602803055e-38,59.0,22.0
-1.200929879767633e-38,59.0,23.0
1.2844256882450415e-38,59.0,24.0
1.0898633838747873e-38,59.0,25.0
1.068990342599437e-38,59.0,26.0
2.825360181423512e-38,59.0,27.0
-1.3720572890100582e-38,59.0,28.0
-1.2712075200907584e-38,59.0,29.0
1.5972002698971194e-38,59.0,30.0
-9.103698024108036e-39,59.0,31.0
5.746022951665448e-39,60.0,0.0
-7.883813060273174e-39,60.0,1.0
1.3901460903666416e-38,60.0,2.0
-7.290681255383016e-39,60.0,3.0
1.2787394993365042e-38,60.0,4.0
-8.299712839290922e-39,60.0,5.0
-1.5607341398301482e-38,60.0,6.0
-1.0447258787807277e-38,60.0,7.0
1.4903015158968685e-38,60.0,8.0
-9.695621909721946e-39,60.0,9.0
-5.994782856350854e-39,60.0,10.0
2.0076501189274157e-39,60.0,11.0
-2.509572808073136e-39,60.0,12.0
4.558004916207797e-39,60.0,13.0
-5.4255586045605413e-39,60.0,14.0
-1.3396528225419326e-38,60.0,15.0
-4.9535172038680835e-39,60.0,16.0
6.082344392192654e-39,60.0,17.0
-1.378472993899123e-38,60.0,18.0
-2.803359235014227e-39,60.0,19.0
-6.638371215045956e-39,60.0,20.0
1.087587114649338e-38,60.0,21.0
1.1602777909280308e-38,60.0,22.0
-1.3013139972072378e-38,60.0,23.0
-8.287300137493933e-39,60.0,24.0
-3.1660875845822487e-38,60.0,25.0
9.995808066749608e-39,60.0,26.0
-9.63824994799556e-39,60.0,27.0
-1.1903402672727303e-38,60.0,28.0
7.042766333671598e-39,60.0,29.0
-7.883179673367299e-39,60.0,30.0
-1.534950107956725e-39,60.0,31.0
1.2407703365366983e-38,61.0,0.0
-1.0749350710746421e-38,61.0,1.0
-1.322782590329926e-38,61.0,2.0
-1.4721450318244583e-38,61.0,3.0
-1.1661367599372192e-38,61.0,4.0
-1.2663827093482416e-38,61.0,5.0
-1.2541890305012263e-38,61.0,6.0
-1.3086310172685562e-38,61.0,7.0
-1.1566292301164682e-38,61.0,8.0
-1.2702299742820454e-38,61.0,9.0
-1.288505148334384e-38,61.0,10.0
-1.1488314245520399e-38,61.0,11.0
-1.4741180600622276e-38,61.0,12.0
-1.274140718036283e-38,61.0,13.0
-1.2801890024680018e-38,61.0,14.0
1.209074646831828e-38,61.0,15.0
-1.3449689285260416e-38,61.0,16.0
-9.457241422761794e-39,61.0,17.0
-1.225564286380924e-38,61.0,18.0
-1.2742972430747481e-38,61.0,19.0
-1.1713456665888075e-38,61.0,20.0
-3.2211036833304124e-38,61.0,21.0
-1.2846315389894508e-38,61.0,22.0
-1.2841246893349045e-38,61.0,23.0
-1.3325354875117804e-38,61.0,24.0
-1.2368374522667243e-38,61.0,25.0
1.0122611564786361e-38,61.0,26.0
1.39865995944634e-38,61.0,27.0
-1.2716563559888816e-38,61.0,28.0
-1.2140395874207774e-38,61.0,29.0
-1.0783480736143517e-38,61.0,30.0
-1.1083745365885181e-38,61.0,31.0
6.249421208094102e-39,62.0,0.0
-1.40378394741099e-38,62.0,1.0
-1.186771160084095e-38,62.0,2.0
-1.393712955477734e-38,62.0,3.0
-1.534455589728665e-38,62.0,4.0
-1.3597173146033675e-38,62.0,5.0
-1.3831889237509617e-38,62.0,6.0
-1.4992535710063612e-38,62.0,7.0
-1.475987111953944e-38,62.0,8.0
-1.4259006410734286e-38,62.0,9.0
-1.4853264859589761e-38,62.0,10.0
-1.499471893307103e-38,62.0,11.0
-1.3124589442835523e-38,62.0,12.0
1.1488682787016517e-38,62.0,13.0
-1.3795257894353702e-38,62.0,14.0
1.272191091482868e-38,62.0,15.0
-1.4162309810203552e-38,62.0,16.0
-1.3246421133920851e-38,62.0,17.0
1.2215550313446442e-38,62.0,18.0
1.4244714567696637e-38,62.0,19.0
-1.3468333561328258e-38,62.0,20.0
-1.3714938268975532e-38,62.0,21.0
-1.3824828094547885e-38,62.0,22.0
1.1599056060559061e-38,62.0,23.0
-1.5234587599000295e-38,62.0,24.0
-1.4863721348730553e-38,62.0,25.0
1.1578106648517405e-38,62.0,26.0
2.3423760410231418e-38,62.0,27.0
-1.6485564573161596e-38,62.0,28.0
-1.3993840103628565e-38,62.0,29.0
-1.4775803883078814e-38,62.0,30.0
-1.4616309493167828e-38,62.0,31.0
-2.879091569739583e-38,63.0,0.0
-1.1015797804648535e-38,63.0,1.0
-1.3982856726265187e-38,63.0,2.0
-1.3558149786399157e-38,63.0,3.0
-1.28829201083796e-38,63.0,4.0
-1.3407847914414142e-38,63.0,5.0
-1.3634471507258608e-38,63.0,6.0
-1.2710990595896196e-38,63.0,7.0
-1.285820120346891e-38,63.0,8.0
-1.29686473445316e-38,63.0,9.0
-1.3327028025484208e-38,63.0,10.0
-1.197803162504185e-38,63.0,11.0
-3.358731371224996e-38,63.0,12.0
1.1284449141035032e-38,63.0,13.0
-1.3176716344409942e-38,63.0,14.0
-1.2268586657724208e-38,63.0,15.0
-1.3664930130679173e-38,63.0,16.0
-1.09958531236058e-38,63.0,17.0
-4.6654200486921513e-39,63.0,18.0
-1.2449654037493475e-38,63.0,19.0
-1.1050402870225037e-38,63.0,20.0
1.5225762221271977e-38,63.0,21.0
-1.3650344014964016e-38,63.0,22.0
1.397275196303894e-38,63.0,23.0
-1.2653073529067187e-38,63.0,24.0
-1.2009099813294396e-38,63.0,25.0
1.1082964842640552e-38,63.0,26.0
1.6483384152751106e-38,63.0,27.0
1.1952375251458527e-38,63.0,28.0
-1.1788812892105606e-38,63.0,29.0
-1.1265729194850117e-38,63.0,30.0
-1.222118773716842e-38,63.0,31.0
